tree
version=v4
num_class=1
num_tree_per_iteration=1
label_index=0
max_feature_idx=14
objective=lambdarank
feature_names=similarity stream_match domain_match apt_quant apt_logical apt_verbal apt_creative apt_technical apt_commerce marks_10th marks_12th avg_aptitude tech_score business_score creative_score
feature_infos=[0:1] [0:1] [0:1] [65:97] [68:95] [68:88] [55:95] [58:97] [35:96] [67:95] [67:94] [64.833333333333329:84] [64.200000000000003:95.900000000000006] [53.299999999999997:90.199999999999989] [64:92.200000000000003]
tree_sizes=3395 3413

Tree=0
num_leaves=31
num_cat=0
split_feature=1 0 9 7 7 8 12 9 9 7 5 0 5 7 14 6 3 6 5 3 3 3 3 8 3 4 3 3 5 3
split_gain=38.9356 12.3479 2.91894 1.50825 1.33766 0.898945 0.697184 0.671389 0.587871 0.422855 0.275158 0.222841 0.199495 0.139262 0.110624 0.098805 0.0966347 0.0527821 0.0523321 0.0443115 0.0317127 0.0276599 0.0274693 0.0198485 0.0171991 0.00525942 0.00482226 0.00471785 0.00179519 0.000405935
threshold=1.0000000180025095e-35 1.0000000180025095e-35 91.500000000000014 73.000000000000014 68.500000000000014 81.000000000000014 86.15000000000002 81.500000000000014 90.500000000000014 88.500000000000014 71.000000000000014 0.41666666666666669 79.500000000000014 91.000000000000014 70.700000000000017 90.000000000000014 87.500000000000014 61.000000000000007 81.000000000000014 71.000000000000014 87.500000000000014 85.000000000000014 83.000000000000014 46.500000000000007 91.500000000000014 81.000000000000014 83.000000000000014 75.500000000000014 79.500000000000014 81.000000000000014
decision_type=2 2 2 2 2 2 2 2 2 2 2 2 2 2 2 2 2 2 2 2 2 2 2 2 2 2 2 2 2 2
left_child=8 2 3 4 12 -6 15 -7 10 18 -1 14 17 20 -3 22 -17 -2 -8 -14 -11 -21 25 26 -15 29 -12 28 -25 -5
right_child=1 11 -4 6 5 7 9 -9 -10 13 23 -13 19 24 -16 16 -18 -19 -20 21 -22 -23 -24 27 -26 -27 -28 -29 -30 -31
leaf_value=-0.072949123902401131 0.013240607241829398 0.072691709360538787 -0.088932811567237174 0.035749220104860611 0.01543346912043325 -0.02471592213722363 -0.023795827740414992 -0.099999999999999839 -0.051490305373232848 0.0037775634200349567 -0.091157744900609392 0.099175006357280604 0.00909425815838792 0.046977698619479098 0.090774288939524272 0.066700134158707167 0.036888955552646194 0.027447670310826372 0.0010906650373425971 -0.0080495537834619543 0.02112720477037534 0.0043065027771707776 0.043737943260201473 -0.098301743479669856 0.033233547938480712 0.030728526817191466 -0.09533846832171021 -0.099943854454841941 -0.094386247604729592 0.037627300522964799
leaf_weight=1.5346560627222077 1.2568248314782979 1.7929123947396868 0.70903492346406061 0.71547983167692997 0.51025344897061575 0.56857733638025798 0.63093131291680071 0.61807717336341739 1.0052067232318211 0.56359273195266746 1.3998853610828521 3.5222796930465847 1.2906163367442789 0.33145287248771615 1.6011349711334331 0.73841355275362708 0.43022461154032499 1.3624721810920162 0.31756679946556687 1.0978426490910349 0.49446664529386908 0.77102797850966442 1.5269067483022809 0.53229039022699021 0.7266020211391151 0.58766345586627733 1.3596775103360412 2.6604531516786665 0.65045954706147313 0.4812427768483758
leaf_count=28 33 31 41 27 22 37 43 30 26 23 19 24 41 22 35 39 25 42 21 35 24 22 43 20 45 23 26 129 35 24
internal_value=0 0.0346861 0.0102035 0.0148833 -0.00103366 -0.0400644 0.0306549 -0.0639282 -0.0875641 0.0122779 -0.0920202 0.090365 0.0104275 0.0247124 0.0812221 0.0432262 0.0557254 0.0206307 -0.0154636 0.00196883 0.0118856 -0.00295189 0.0388149 -0.0964528 0.0375391 0.0346022 -0.0932176 -0.0987758 -0.0961484 0.0365045
internal_weight=0 22.6456 15.7293 15.0202 7.47569 1.69691 7.54454 1.18665 9.14263 3.06461 8.13742 6.91633 5.77878 2.11611 3.39405 4.47993 1.16864 2.6193 0.948498 3.15949 1.05806 1.86887 3.31129 6.60277 1.05805 1.78439 2.75956 3.8432 1.18275 1.19672
internal_count=1035 752 662 621 262 89 359 67 283 178 257 90 173 114 66 181 64 75 64 98 47 57 117 229 67 74 45 184 55 51
is_linear=0
shrinkage=0.05


Tree=1
num_leaves=31
num_cat=0
split_feature=2 11 3 5 0 8 0 0 7 3 9 3 11 3 3 13 1 6 4 6 3 3 14 3 0 9 5 9 3 7
split_gain=265.549 4.61214 1.34807 0.742849 0.532081 0.337413 1.0645 0.284359 0.261435 0.104063 0.0952261 0.0880879 0.0808338 0.0442976 0.0307955 0.0281022 0.0232704 0.0144937 0.0130685 0.0111957 0.00730297 0.00500478 0.00378463 0.00332758 0.00261472 0.00355556 0.001729 0.00139477 0.00111396 0.00110216
threshold=1.0000000180025095e-35 75.416666666666671 77.000000000000014 79.500000000000014 0.70833333333333337 53.500000000000007 1.0000000180025095e-35 0.29166666666666669 79.000000000000014 83.000000000000014 87.500000000000014 75.500000000000014 78.166666666666671 68.000000000000014 73.000000000000014 61.000000000000007 1.0000000180025095e-35 61.000000000000007 81.000000000000014 63.000000000000007 81.000000000000014 75.500000000000014 75.000000000000014 77.000000000000014 1.0000000180025095e-35 90.500000000000014 79.500000000000014 90.500000000000014 81.000000000000014 83.000000000000014
decision_type=2 2 2 2 2 2 2 2 2 2 2 2 2 2 2 2 2 2 2 2 2 2 2 2 2 2 2 2 2 2
left_child=1 2 3 14 5 7 12 10 -4 18 -2 -3 -7 -5 -1 -13 22 -11 28 -18 23 -16 27 -21 25 29 -27 -17 -10 -22
right_child=4 11 8 13 -6 6 -8 -9 9 17 -12 15 -14 -15 21 16 19 -19 -20 20 24 -23 -24 -25 -26 26 -28 -29 -30 -31
leaf_value=-0.099809772771099939 0.085374994942790272 -0.084685317483545408 -0.040244140331049019 -0.061715077120380261 0.096797272749973393 0.084176129808630318 0.06739349888772142 0.094012949800297133 -0.060765986276985179 -0.050374123445289222 0.07596808015943296 -0.089762525837702029 0.092601535915698294 -0.070981470393858104 -0.089393060213218967 -0.091791044672457883 -0.095014439275091289 -0.055695317072503192 -0.066285181171758259 -0.097860048428466559 -0.099598266235099014 -0.093602944817035683 -0.095914889114590743 -0.093944878102720328 -0.10051068426600718 -0.098335641630791393 -0.095672361966223973 -0.094734288415201096 -0.062381305695085355 -0.098525745994865702
leaf_weight=1.7580633033067004 5.9350245893001574 1.5946995960548545 2.2486829366534939 2.1938331443816423 6.0724811553955069 5.7933300063014048 13.037578091025351 7.0401190221309653 2.2477079536765796 1.9589709397405384 4.9209276586771011 1.3332564523443604 5.5971042700111866 3.1295667979866266 1.4920311532914639 1.9242519503459439 2.8338008373975709 3.6903981249779463 2.1854079961776733 0.99668323993683161 4.190641073510049 1.3399979416280985 1.1238670283928511 1.1915007941424844 1.9921186007559288 1.100462477654218 1.3656522966921327 0.50899771600961674 2.0323918554931879 5.5914926696568727
leaf_count=32 32 30 29 29 5 34 34 11 28 28 26 24 19 53 25 95 49 54 26 14 49 24 41 32 16 19 40 18 28 91
internal_value=0 -0.0813248 -0.0656898 -0.079872 0.0829564 0.0809706 0.0771495 0.0861864 -0.0559014 -0.0588076 0.0811109 -0.096067 0.0883163 -0.0671627 -0.0946118 -0.0968184 -0.0972307 -0.0538501 -0.0631393 -0.0979168 -0.0984175 -0.091385 -0.0935151 -0.0957282 -0.0988307 -0.0985575 -0.0968608 -0.0924067 -0.061533 -0.0989852
internal_weight=0 50.0245 24.2771 9.91349 48.3966 42.3241 24.428 17.8961 14.3636 12.1149 10.856 25.7474 11.3904 5.3234 4.59009 24.1527 22.8195 5.64937 6.46551 19.2624 16.4286 2.83203 3.55712 2.18818 14.2404 12.2482 2.46611 2.43325 4.2801 9.78213
internal_count=1035 874 356 163 161 156 87 69 193 164 58 518 53 82 81 488 464 82 82 310 261 49 154 46 215 199 59 113 56 140
is_linear=0
shrinkage=0.05


end of trees

feature_importances:
apt_quant=18
similarity=6
apt_verbal=6
apt_technical=6
marks_10th=6
apt_creative=4
apt_commerce=3
stream_match=2
apt_logical=2
avg_aptitude=2
creative_score=2
domain_match=1
tech_score=1
business_score=1

parameters:
[boosting: gbdt]
[objective: lambdarank]
[metric: ndcg]
[tree_learner: serial]
[device_type: cpu]
[data: ]
[valid: ]
[num_iterations: 200]
[learning_rate: 0.05]
[num_leaves: 31]
[num_threads: 0]
[deterministic: 0]
[force_col_wise: 0]
[force_row_wise: 0]
[histogram_pool_size: -1]
[max_depth: -1]
[min_data_in_leaf: 20]
[min_sum_hessian_in_leaf: 0.001]
[bagging_fraction: 0.8]
[pos_bagging_fraction: 1]
[neg_bagging_fraction: 1]
[bagging_freq: 5]
[bagging_seed: 3]
[feature_fraction: 0.9]
[feature_fraction_bynode: 1]
[feature_fraction_seed: 2]
[extra_trees: 0]
[extra_seed: 6]
[early_stopping_round: 0]
[first_metric_only: 0]
[max_delta_step: 0]
[lambda_l1: 0]
[lambda_l2: 0]
[linear_lambda: 0]
[min_gain_to_split: 0]
[drop_rate: 0.1]
[max_drop: 50]
[skip_drop: 0.5]
[xgboost_dart_mode: 0]
[uniform_drop: 0]
[drop_seed: 4]
[top_rate: 0.2]
[other_rate: 0.1]
[min_data_per_group: 100]
[max_cat_threshold: 32]
[cat_l2: 10]
[cat_smooth: 10]
[max_cat_to_onehot: 4]
[top_k: 20]
[monotone_constraints: ]
[monotone_constraints_method: basic]
[monotone_penalty: 0]
[feature_contri: ]
[forcedsplits_filename: ]
[refit_decay_rate: 0.9]
[cegb_tradeoff: 1]
[cegb_penalty_split: 0]
[cegb_penalty_feature_lazy: ]
[cegb_penalty_feature_coupled: ]
[path_smooth: 0]
[interaction_constraints: ]
[verbosity: 0]
[saved_feature_importance_type: 0]
[linear_tree: 0]
[max_bin: 255]
[max_bin_by_feature: ]
[min_data_in_bin: 3]
[bin_construct_sample_cnt: 200000]
[data_random_seed: 1]
[is_enable_sparse: 1]
[enable_bundle: 1]
[use_missing: 1]
[zero_as_missing: 0]
[feature_pre_filter: 1]
[pre_partition: 0]
[two_round: 0]
[header: 0]
[label_column: ]
[weight_column: ]
[group_column: ]
[ignore_column: ]
[categorical_feature: ]
[forcedbins_filename: ]
[precise_float_parser: 0]
[parser_config_file: ]
[objective_seed: 5]
[num_class: 1]
[is_unbalance: 0]
[scale_pos_weight: 1]
[sigmoid: 1]
[boost_from_average: 1]
[reg_sqrt: 0]
[alpha: 0.9]
[fair_c: 1]
[poisson_max_delta_step: 0.7]
[tweedie_variance_power: 1.5]
[lambdarank_truncation_level: 30]
[lambdarank_norm: 1]
[label_gain: ]
[lambdarank_position_bias_regularization: 0]
[eval_at: 1,3,5,10]
[multi_error_top_k: 1]
[auc_mu_weights: ]
[num_machines: 1]
[local_listen_port: 12400]
[time_out: 120]
[machine_list_filename: ]
[machines: ]
[gpu_platform_id: -1]
[gpu_device_id: -1]
[gpu_use_dp: 0]
[num_gpu: 1]

end of parameters

pandas_categorical:null
